sigma_C1,sigma_C2,sigma_H1,sigma_H2,sigma_H3,sigma_H4,sigma_O1,sigma_O2,epsilon_C1,epsilon_C2,epsilon_H1,epsilon_H2,epsilon_H3,epsilon_H4,epsilon_O1,epsilon_O2,temperature
-6.320339542803369e-32,-1.1102230246251565e-16,9.860761315262648e-32,3.216303007126684e-32,0.0,0.0,3.723963028342058e-246,6.059977154198448e-251,-0.20998441655935585,-0.4808245737998547,-0.043288860395587485,-0.08148912431444731,0.0,0.0,0.2680339703997736,-0.4194755927621233,0.6843960030604571
-0.9999999999999999,2.100803898362544e-15,-1.001092819368768e-14,-7.894162749183037e-14,2.619018205333759e-28,1.7299916866723094e-26,-1.3536853133592563e-27,9.529439735069823e-28,8.660582928663528e-15,-3.316375011789477e-15,2.1815066465246248e-18,-4.502791384632245e-15,0.0,0.0,-1.7886067973602153e-15,6.005000022055078e-17,5.285765097519502e-16
0.0,6.212593049033325e-18,-8.789128499305021e-18,2.013132477477326e-18,-5.566540855644258e-16,-1.492922509641087e-17,-5.869282187673888e-17,4.582721612819075e-17,1.7950782137191723e-18,-9.12777022943326e-18,6.516173356321434e-17,-5.062587672875576e-19,0.030434588673544385,0.9995367606107703,-4.5356601296472036e-18,4.01615837756204e-18,2.437179975240171e-18
0.0,1.235037250068446e-18,-1.679080821470403e-18,4.065911204268265e-19,-2.1829096915870856e-16,-6.213603315600099e-18,-7.889219213916122e-17,-1.963170878711695e-17,4.856200045625382e-19,-1.8289571710510792e-18,1.3200835247885509e-17,-1.0064210400382231e-19,-0.9995367606107701,0.03043458867354437,-9.013234520106776e-19,7.987419359631197e-19,5.295925270945133e-19
0.0,0.0027004665910079764,-0.004278846251643136,0.0008320918642581174,0.6923633212373039,0.009743977353585523,0.22551426204060998,0.68477852732999,-8.574858356753215e-05,-0.0038708100150546326,0.026663321861541415,-0.00022005865774174467,-1.1102230246251565e-16,5.551115123125783e-16,-0.001973874905940266,0.0017433974131722343,0.000756118062492446
0.0,0.0024660931758788912,-0.0038123940483188864,0.0007687877892877587,0.700003323392232,-0.004777962323551486,0.014588176879756843,-0.7135192188876083,0.00010133531114509963,-0.003554945043902965,0.024693744476164035,-0.000200959773380248,-2.220446049250313e-16,2.7755575615628914e-16,-0.0018020787930736536,0.0015925715720045927,0.000753401769803807
0.0,-0.0877940112301947,0.12743827918861744,-0.02814572743912039,0.08869457304530029,0.14313098602549895,-0.3049418039644467,0.0463766629170674,-0.019258520583238008,0.12830727067747116,-0.9091248949894912,0.007154257095200385,-1.1102230246251565e-16,0.0,0.06411267463111663,-0.0567383845216053,-0.03230210156127203
0.0,-0.02888065298645664,0.04169570557167316,-0.009280009037971115,-0.15084127129563582,0.08858931185684302,0.9242638983622555,-0.14070982814679872,-0.006762776944012214,0.04225565685010139,-0.29988496281456184,0.0023534591214954765,0.0,0.0,0.02108930723015323,-0.018665767786115242,-0.01077578078446133
0.0,0.06612418473509105,-0.33666970738370466,-0.0013615383033603497,0.0016749607054031262,-0.7923744952563265,0.032484811950172714,0.0033990459118725877,-0.4401881401674279,-0.04580666551955634,-0.18731788705982283,-0.005388401910066748,0.0,0.0,-0.04951197801030227,0.04150992255980934,-0.13489588249799336
0.0,-0.1151471594662202,0.4924155836190367,-0.006426175630570349,0.002399320308625119,-0.586251089476812,0.0249395686266038,0.002662456056145252,0.5892303504059162,0.09958778508983006,-0.013855510109525928,0.009383241192194565,0.0,0.0,0.08574176476813919,-0.07276171382829354,0.17281635095527476
-8.015810237793628e-14,-0.019787725531442042,0.13283574823313515,0.9826379083188481,-3.282096816548119e-15,-2.1578051845327906e-13,1.6930901125533637e-14,-1.1879386363489175e-14,-0.11392735786319955,0.05120206726552817,0.0020142909816108427,0.0016124844257285197,0.0,0.0,0.026182104928364827,-0.0010562858820068154,-0.009564551736266368
-1.1934897514720433e-15,0.20321356337768187,-0.5275853080983758,0.17442185975507435,-8.847089727481716e-17,-2.456368441983159e-15,1.1102230246251565e-16,-8.59306310767403e-221,0.597662083174414,-0.43210855028775197,-0.19159818062527328,-0.016559695328462142,0.0,0.0,-0.26127717715611787,0.018452317194008666,-0.020661622412601027
0.0,-0.3501626885083775,-0.5745735519717247,0.05541077472129596,-6.938893903907228e-18,-2.636779683484747e-16,1.075106998045491e-217,1.1028801009073145e-220,0.18352834110408756,0.5489771006303956,0.05010701468518358,0.02853445085414549,0.0,0.0,0.37180251471755194,-0.11020680675024097,0.23540366178206196
0.0,0.003469778752595243,0.006492414394857808,0.0025823529934201964,-4.336808689942018e-19,-2.220446049250313e-16,8.885666144301289e-217,-6.128875292455343e-222,0.04527477964411951,-0.3005679285612296,-0.03602987632470731,-0.00028274923211375796,0.0,0.0,0.669881624602362,0.6746578779185144,-0.04842912491284588
-4.554284609571882e-15,-0.0956734552086089,8.382183835919932e-15,2.3175905639050143e-15,0.0,0.0,2.699351532052528e-229,4.393540219650046e-234,-0.02738023890871842,-0.10087653663572341,-0.0008718895404118687,0.9879182736155767,0.0,0.0,-0.03639524879113129,-0.0024419774550310247,0.051058632166537096
-3.7392757922266777e-17,0.8942190391073941,-2.220446049250313e-16,3.3306690738754696e-16,0.0,0.0,-4.488655992438329e-231,-7.559179846662173e-236,0.039123591449357675,0.32894129646344694,-0.021854024414127517,0.12388731888179863,0.0,0.0,0.23421053913003892,-0.08631660638692656,0.11184131092913141
9.71439114442651e-18,0.026816320697158613,3.3306690738754696e-16,1.9619470904274742e-231,0.0,0.0,-1.34608226092575e-232,-2.2668874415595697e-237,-0.07962221891575472,0.19768913691256312,-0.06391545635945547,-0.027639283304968346,0.0,0.0,-0.44909176044129934,0.58167236438519,0.6395192944837494
